digraph Tree {
node [shape=box, style="filled, rounded", color="black", fontname=helvetica] ;
edge [fontname=helvetica] ;
0 [label="RevolvingUtilizationOfUnsecuredLines <= 0.5\nentropy = 0.634\nsamples = 28711\nvalue = [24124, 4587]\nclass = Delinquent", fillcolor="#e58139cf"] ;
1 [label="NumberOfTime30-59DaysPastDueNotWorse <= 0.5\nentropy = 0.36\nsamples = 19622\nvalue = [18277, 1345]\nclass = Delinquent", fillcolor="#e58139ec"] ;
0 -> 1 [labeldistance=2.5, labelangle=45, headlabel="True"] ;
2 [label="NumberOfTimes90DaysLate <= 0.5\nentropy = 0.27\nsamples = 17175\nvalue = [16380, 795]\nclass = Delinquent", fillcolor="#e58139f3"] ;
1 -> 2 ;
3 [label="NumberOfTime60-89DaysPastDueNotWorse <= 0.5\nentropy = 0.244\nsamples = 16911\nvalue = [16227, 684]\nclass = Delinquent", fillcolor="#e58139f4"] ;
2 -> 3 ;
4 [label="RevolvingUtilizationOfUnsecuredLines <= 0.154\nentropy = 0.227\nsamples = 16645\nvalue = [16033, 612]\nclass = Delinquent", fillcolor="#e58139f5"] ;
3 -> 4 ;
5 [label="entropy = 0.168\nsamples = 11808\nvalue = [11515, 293]\nclass = Delinquent", fillcolor="#e58139f9"] ;
4 -> 5 ;
6 [label="entropy = 0.351\nsamples = 4837\nvalue = [4518, 319]\nclass = Delinquent", fillcolor="#e58139ed"] ;
4 -> 6 ;
7 [label="RevolvingUtilizationOfUnsecuredLines <= 0.379\nentropy = 0.842\nsamples = 266\nvalue = [194, 72]\nclass = Delinquent", fillcolor="#e58139a0"] ;
3 -> 7 ;
8 [label="entropy = 0.774\nsamples = 233\nvalue = [180, 53]\nclass = Delinquent", fillcolor="#e58139b4"] ;
7 -> 8 ;
9 [label="entropy = 0.983\nsamples = 33\nvalue = [14, 19]\nclass = Not Delinquent", fillcolor="#399de543"] ;
7 -> 9 ;
10 [label="RevolvingUtilizationOfUnsecuredLines <= 0.201\nentropy = 0.982\nsamples = 264\nvalue = [153, 111]\nclass = Delinquent", fillcolor="#e5813946"] ;
2 -> 10 ;
11 [label="NumberOfTimes90DaysLate <= 1.5\nentropy = 0.887\nsamples = 164\nvalue = [114, 50]\nclass = Delinquent", fillcolor="#e581398f"] ;
10 -> 11 ;
12 [label="entropy = 0.8\nsamples = 140\nvalue = [106, 34]\nclass = Delinquent", fillcolor="#e58139ad"] ;
11 -> 12 ;
13 [label="entropy = 0.918\nsamples = 24\nvalue = [8, 16]\nclass = Not Delinquent", fillcolor="#399de57f"] ;
11 -> 13 ;
14 [label="zipcode_60644 <= 0.5\nentropy = 0.965\nsamples = 100\nvalue = [39, 61]\nclass = Not Delinquent", fillcolor="#399de55c"] ;
10 -> 14 ;
15 [label="entropy = 0.935\nsamples = 94\nvalue = [33, 61]\nclass = Not Delinquent", fillcolor="#399de575"] ;
14 -> 15 ;
16 [label="entropy = 0.0\nsamples = 6\nvalue = [6, 0]\nclass = Delinquent", fillcolor="#e58139ff"] ;
14 -> 16 ;
17 [label="NumberOfTimes90DaysLate <= 0.5\nentropy = 0.769\nsamples = 2447\nvalue = [1897, 550]\nclass = Delinquent", fillcolor="#e58139b5"] ;
1 -> 17 ;
18 [label="NumberOfTime60-89DaysPastDueNotWorse <= 0.5\nentropy = 0.687\nsamples = 2185\nvalue = [1785, 400]\nclass = Delinquent", fillcolor="#e58139c6"] ;
17 -> 18 ;
19 [label="zipcode_60644 <= 0.5\nentropy = 0.63\nsamples = 1967\nvalue = [1656, 311]\nclass = Delinquent", fillcolor="#e58139cf"] ;
18 -> 19 ;
20 [label="entropy = 0.653\nsamples = 1851\nvalue = [1540, 311]\nclass = Delinquent", fillcolor="#e58139cc"] ;
19 -> 20 ;
21 [label="entropy = 0.0\nsamples = 116\nvalue = [116, 0]\nclass = Delinquent", fillcolor="#e58139ff"] ;
19 -> 21 ;
22 [label="zipcode_60644 <= 0.5\nentropy = 0.976\nsamples = 218\nvalue = [129, 89]\nclass = Delinquent", fillcolor="#e581394f"] ;
18 -> 22 ;
23 [label="entropy = 0.984\nsamples = 209\nvalue = [120, 89]\nclass = Delinquent", fillcolor="#e5813942"] ;
22 -> 23 ;
24 [label="entropy = 0.0\nsamples = 9\nvalue = [9, 0]\nclass = Delinquent", fillcolor="#e58139ff"] ;
22 -> 24 ;
25 [label="zipcode_60644 <= 0.5\nentropy = 0.985\nsamples = 262\nvalue = [112, 150]\nclass = Not Delinquent", fillcolor="#399de541"] ;
17 -> 25 ;
26 [label="NumberOfTimes90DaysLate <= 1.5\nentropy = 0.971\nsamples = 250\nvalue = [100, 150]\nclass = Not Delinquent", fillcolor="#399de555"] ;
25 -> 26 ;
27 [label="entropy = 1.0\nsamples = 166\nvalue = [82, 84]\nclass = Not Delinquent", fillcolor="#399de506"] ;
26 -> 27 ;
28 [label="entropy = 0.75\nsamples = 84\nvalue = [18, 66]\nclass = Not Delinquent", fillcolor="#399de5b9"] ;
26 -> 28 ;
29 [label="entropy = 0.0\nsamples = 12\nvalue = [12, 0]\nclass = Delinquent", fillcolor="#e58139ff"] ;
25 -> 29 ;
30 [label="NumberOfTimes90DaysLate <= 0.5\nentropy = 0.94\nsamples = 9089\nvalue = [5847, 3242]\nclass = Delinquent", fillcolor="#e5813972"] ;
0 -> 30 [labeldistance=2.5, labelangle=-45, headlabel="False"] ;
31 [label="NumberOfTime30-59DaysPastDueNotWorse <= 0.5\nentropy = 0.833\nsamples = 7212\nvalue = [5307, 1905]\nclass = Delinquent", fillcolor="#e58139a3"] ;
30 -> 31 ;
32 [label="NumberOfTime60-89DaysPastDueNotWorse <= 0.5\nentropy = 0.717\nsamples = 5171\nvalue = [4149, 1022]\nclass = Delinquent", fillcolor="#e58139c0"] ;
31 -> 32 ;
33 [label="zipcode_60644 <= 0.5\nentropy = 0.678\nsamples = 4871\nvalue = [3998, 873]\nclass = Delinquent", fillcolor="#e58139c7"] ;
32 -> 33 ;
34 [label="entropy = 0.703\nsamples = 4573\nvalue = [3700, 873]\nclass = Delinquent", fillcolor="#e58139c3"] ;
33 -> 34 ;
35 [label="entropy = 0.0\nsamples = 298\nvalue = [298, 0]\nclass = Delinquent", fillcolor="#e58139ff"] ;
33 -> 35 ;
36 [label="zipcode_60644 <= 0.5\nentropy = 1.0\nsamples = 300\nvalue = [151, 149]\nclass = Delinquent", fillcolor="#e5813903"] ;
32 -> 36 ;
37 [label="entropy = 0.999\nsamples = 290\nvalue = [141, 149]\nclass = Not Delinquent", fillcolor="#399de50e"] ;
36 -> 37 ;
38 [label="entropy = 0.0\nsamples = 10\nvalue = [10, 0]\nclass = Delinquent", fillcolor="#e58139ff"] ;
36 -> 38 ;
39 [label="zipcode_60644 <= 0.5\nentropy = 0.987\nsamples = 2041\nvalue = [1158, 883]\nclass = Delinquent", fillcolor="#e581393d"] ;
31 -> 39 ;
40 [label="NumberOfTime60-89DaysPastDueNotWorse <= 1.5\nentropy = 0.993\nsamples = 1960\nvalue = [1077, 883]\nclass = Delinquent", fillcolor="#e581392e"] ;
39 -> 40 ;
41 [label="entropy = 0.984\nsamples = 1839\nvalue = [1056, 783]\nclass = Delinquent", fillcolor="#e5813942"] ;
40 -> 41 ;
42 [label="entropy = 0.666\nsamples = 121\nvalue = [21, 100]\nclass = Not Delinquent", fillcolor="#399de5c9"] ;
40 -> 42 ;
43 [label="entropy = 0.0\nsamples = 81\nvalue = [81, 0]\nclass = Delinquent", fillcolor="#e58139ff"] ;
39 -> 43 ;
44 [label="zipcode_60644 <= 0.5\nentropy = 0.866\nsamples = 1877\nvalue = [540, 1337]\nclass = Not Delinquent", fillcolor="#399de598"] ;
30 -> 44 ;
45 [label="NumberOfTime60-89DaysPastDueNotWorse <= 0.5\nentropy = 0.847\nsamples = 1842\nvalue = [505, 1337]\nclass = Not Delinquent", fillcolor="#399de59f"] ;
44 -> 45 ;
46 [label="NumberOfTime30-59DaysPastDueNotWorse <= 1.5\nentropy = 0.921\nsamples = 1071\nvalue = [360, 711]\nclass = Not Delinquent", fillcolor="#399de57e"] ;
45 -> 46 ;
47 [label="entropy = 0.954\nsamples = 829\nvalue = [310, 519]\nclass = Not Delinquent", fillcolor="#399de567"] ;
46 -> 47 ;
48 [label="entropy = 0.735\nsamples = 242\nvalue = [50, 192]\nclass = Not Delinquent", fillcolor="#399de5bd"] ;
46 -> 48 ;
49 [label="NumberRealEstateLoansOrLines <= 0.5\nentropy = 0.697\nsamples = 771\nvalue = [145, 626]\nclass = Not Delinquent", fillcolor="#399de5c4"] ;
45 -> 49 ;
50 [label="entropy = 0.788\nsamples = 449\nvalue = [106, 343]\nclass = Not Delinquent", fillcolor="#399de5b0"] ;
49 -> 50 ;
51 [label="entropy = 0.533\nsamples = 322\nvalue = [39, 283]\nclass = Not Delinquent", fillcolor="#399de5dc"] ;
49 -> 51 ;
52 [label="entropy = 0.0\nsamples = 35\nvalue = [35, 0]\nclass = Delinquent", fillcolor="#e58139ff"] ;
44 -> 52 ;
}